#include "cora.hpp"

namespace weights {
const fixed_t w1[N_INPUTS][N_L1]= {{0.716674, 0.033304, 0.079650, 0.946007, 0.248558, 0.953308, -0.260455, 0.016130, -0.258786, -0.755813, 0.854534, -0.617993, 0.015442, -0.005240, 1.473523, 0.666366},
    		{0.591619, 0.436605, -0.259188, 0.551962, 0.339385, 0.350194, -0.154556, -0.094471, 0.039645, -0.622929, -0.033445, -0.054664, 0.222270, 0.256577, 0.490343, 1.040898},
    		{-0.065065, 0.360663, 1.470421, 0.094808, -0.151587, -0.226647, -0.212695, 0.111492, 0.604696, -0.221605, 0.353254, -0.002771, -0.000462, 1.090024, -0.112914, -0.346522},
    		{0.064594, 0.611300, 1.482183, -0.325099, 0.127312, 0.516388, 1.410540, -1.154525, 1.126737, -1.545309, -1.311942, 1.532891, -1.273234, 1.278473, -0.721852, -0.618985},
    		{-0.247169, 0.224581, 1.800290, -0.172667, 0.210137, -0.067905, 0.297427, -1.336591, 0.869374, 0.529873, -0.776603, 1.121782, -1.172961, 0.513508, -0.043732, 0.101135},
    		{-0.207295, 0.856136, 1.490665, -0.346360, -0.304423, 0.264086, -0.386723, -0.978276, 1.212836, 0.438828, 0.080693, 0.034680, -0.736975, -0.143663, 0.284781, 0.300063},
    		{-0.501361, 1.054031, 0.481837, -0.389229, 0.770762, -0.456000, 0.632457, -0.557247, 0.240161, -0.344153, -0.420138, 0.187967, -1.095162, 0.090758, -0.433384, -0.212060},
    		{-0.979398, 1.337961, 0.290536, -0.733789, 1.032930, -0.175755, 1.464613, -0.631819, 0.137228, -0.766247, -1.276736, 1.061467, -1.007680, 0.118669, -1.535674, -1.434672},
    		{-0.049912, 1.596664, -0.319833, -0.985425, 0.928478, -0.582833, 1.634084, -0.351117, 0.240526, -0.353934, -1.051478, 0.624494, -0.506613, 0.011494, -1.190688, -0.644462},
    		{0.487546, 1.393748, -0.275140, -0.484808, 2.088732, -1.405603, 1.281880, 0.123435, -1.403146, 1.525660, -0.008353, -0.793727, -0.111401, -1.558733, -2.164429, -1.023630},
    		{0.342795, -0.121797, 0.136170, 0.913461, 0.504919, 0.721746, -0.011521, -0.524824, -0.112800, -0.742188, 0.535932, -1.142880, 0.697534, -0.224182, 1.450641, 1.148358},
    		{0.664735, -0.472811, 0.358813, -0.031687, -0.180302, 0.998937, -0.130404, 0.016816, -0.257087, 0.033853, 0.816065, -0.538887, -0.837754, -0.519633, 0.633453, 0.260136},
    		{-0.020015, -0.129475, 0.566948, 0.679603, -0.207608, 0.418984, 0.224377, -0.112115, 0.003892, -0.455344, 0.496251, -0.316655, -1.269231, 0.235720, 0.165247, -0.307150},
    		{-0.161929, -0.049889, 0.914558, 0.773277, 0.311168, -0.127349, 0.819600, -0.637158, -0.422109, -0.373365, 0.430025, -0.055087, -1.083118, 0.280784, 0.012237, 0.387405},
    		{-0.331607, 0.007526, -0.101720, 0.710761, -0.204399, -0.339334, 0.380913, -0.572395, -0.258254, 0.291126, 0.129739, 0.035329, -0.619680, 0.328552, 0.222269, 0.115916},
    		{-0.389828, 0.167577, 0.025311, 0.428326, 0.324884, -0.605389, -0.099660, -1.128122, -0.110845, 0.027380, 0.263901, 0.074485, 0.083367, 0.018284, 0.206761, 0.394135},
    		{-0.302591, 0.370772, 0.201911, 0.176121, 0.979043, 0.041084, -0.105525, -0.687580, -0.198872, -0.326929, 0.174495, -0.013842, -0.052791, 0.322952, 0.117032, 0.239958},
    		{-0.328602, 0.405599, 0.172726, 0.226728, 0.775344, 0.287787, -0.233551, -0.037505, 0.088181, 0.021566, 0.060013, 0.173938, -0.564004, -0.052094, -0.188735, -0.256085},
    		{0.218295, 0.849826, 0.104663, -0.399665, 0.590213, 0.029178, 0.556671, 0.095145, 0.176462, -0.122435, -0.760440, 0.043320, -0.531871, -0.226002, -1.049219, -0.711259},
    		{0.089487, 1.197421, -0.123196, 0.393256, 0.778192, -0.696210, 0.345347, 0.928946, -1.363126, 0.693051, 0.402059, -0.360804, -0.575153, -0.562032, -2.289934, -0.208012},
    		{0.734378, 0.615342, 0.234932, 0.127777, 0.238455, 1.154819, 0.500194, -0.240319, -0.289140, -0.982879, 0.482492, -1.301079, 0.672067, -0.819527, 1.166779, 0.439134},
    		{-0.223738, -0.126106, 0.220744, 0.612595, 0.341009, 0.820600, -0.155960, -0.224141, -1.178585, -0.408274, 0.288551, -0.306313, 0.496215, -0.214066, 0.413914, 1.005160},
    		{0.231203, 0.130672, -0.255530, 0.212335, 0.436973, 0.413198, 0.449000, -0.044622, 0.016151, -0.148167, 0.186124, -0.099022, 0.315579, 0.105528, 0.004984, 0.356657},
    		{0.493711, -0.022533, -0.078372, 0.457438, 0.397806, 0.273905, 0.716897, 0.490036, -0.237144, 0.060990, 0.290650, -0.002722, -0.017070, 0.143181, -0.023634, 0.045843},
    		{0.295856, -0.138233, -0.112836, 0.593275, 0.085496, 0.303621, 0.429563, 0.643365, -0.196560, 0.184726, 0.417341, -0.102496, -0.251819, 0.210724, -0.245312, 0.113673},
    		{0.131133, 0.014568, -0.322842, 0.746491, -0.248957, -0.109964, 0.310386, 0.788987, -0.010163, 0.099027, 0.643662, -0.254729, -0.713138, 0.459531, -0.175529, -0.126697},
    		{0.265869, 0.323670, -0.629307, 0.402202, 0.098117, -0.217036, 0.085565, 0.893469, -0.140725, 0.210089, 0.154256, 0.076049, -0.437351, 0.330104, 0.079906, 0.208110},
    		{0.109113, 0.294978, -0.348401, 0.329841, 0.083764, 0.293774, -0.062624, 0.411514, -0.377232, 0.427233, -0.284039, -0.044101, -0.196842, -0.129660, -0.288823, 0.153164},
    		{0.238402, 0.388098, -0.310380, 0.371361, 0.578640, 0.110778, 0.440684, -0.223454, -0.797179, 0.105653, -0.520085, 0.210205, -0.123555, -0.353921, -1.403965, -0.289468},
    		{-0.829341, 2.145719, 0.534767, -0.291602, 1.207880, 0.050031, 1.983723, 0.048620, -0.645611, 0.633346, -0.359107, -0.478241, -0.587487, -1.030659, -2.435879, -2.384827},
    		{1.903228, -1.135589, 2.132286, 1.876804, -0.202831, 1.186609, -2.400632, -0.562066, -0.287501, 0.812080, 1.605840, -0.219567, 1.217971, 1.229432, 1.936699, 2.899559},
    		{0.242918, -0.182649, -0.213293, -0.317512, -0.156801, 0.991569, -0.332094, -0.361924, -1.770780, 0.080325, 0.487058, -0.029070, 0.423670, 0.321553, 0.425793, 0.763931},
    		{0.184485, -0.074316, -0.374548, -0.485936, 0.266374, 0.299565, 0.167570, 0.263425, -0.019301, 0.578304, 0.519580, 0.146007, 0.572774, 0.197999, -0.112566, -0.106816},
    		{0.600152, 0.308956, -0.560277, -0.471319, 0.394876, 0.324147, 0.455679, 0.394283, -0.273420, 0.552208, 0.342066, 0.387702, 0.226630, 0.406920, -0.533320, -0.307759},
    		{0.073195, 0.195484, -0.776788, -0.463398, -0.029929, 0.105181, 0.405811, 0.763217, 0.087090, 0.507095, 0.175247, 0.160408, 0.540252, 0.002058, -0.246989, -0.297610},
    		{0.251975, -0.549761, -0.446306, -0.066870, -0.114352, -0.310022, -0.373085, 0.442863, 0.735561, 0.176130, 0.581070, -0.093822, 0.565251, -0.126116, 0.670561, -0.222187},
    		{0.313829, -0.433452, -0.763494, 0.182491, -0.175153, 0.486354, 0.387729, 0.101955, -0.376791, -0.245706, 0.013391, 0.524440, 0.480558, -0.121617, 0.374914, 0.529197},
    		{-0.120805, -0.851076, -0.706046, 0.077094, -0.125937, 0.648735, 0.212822, -0.177505, -0.967676, 0.104089, 0.233267, -0.010320, 0.554073, -0.043659, 0.045129, -0.303974},
    		{-0.153671, -0.815637, -0.842796, 0.309166, 0.138516, -0.421784, 0.632871, -0.056350, -1.769783, 0.570205, 0.445864, 0.016622, 0.372975, -0.057886, -1.106238, -1.148830},
    		{-0.428980, 0.905968, -1.133069, -0.300055, 1.596743, -1.269751, 1.839379, -1.171253, -0.991146, 1.710703, 0.591473, -1.552601, 0.317383, -2.434497, -2.328313, -0.008374},
    		{1.466193, -0.820296, 0.558852, 0.692181, -0.888243, 1.478229, -1.622115, -0.473144, -0.095561, 0.638475, 0.697870, -0.282890, 0.475346, 0.649008, 1.904650, 2.656812},
    		{-0.879014, 0.364082, -0.572403, -0.585356, -0.344371, 0.174638, 0.020932, 0.208702, -1.220345, 0.534265, 0.327391, -0.139149, 0.206180, -0.010604, 0.222694, -1.197395},
    		{-0.768340, 0.098995, -0.394563, -0.455549, -0.133713, 0.007193, 0.531733, -0.115556, -0.128215, 0.460279, -0.468221, 0.033169, 0.202850, -0.005102, -0.144704, -1.809073},
    		{-0.838376, 0.127531, -0.200068, -0.178542, 0.173173, 0.234361, 0.751500, -0.236521, -0.001907, -0.064884, -0.622557, -0.167201, 0.347972, 0.221763, 0.316389, -0.879033},
    		{-1.292271, -0.236476, 0.584855, -0.315946, 0.782012, -0.468250, 0.559186, -0.326433, 0.218042, -0.211250, -0.297643, 0.194084, 0.440131, -0.419254, 0.393479, 0.053130},
    		{-0.058029, -0.366728, 0.375473, -0.679009, 0.153435, -0.233533, 0.313883, -0.169977, 0.813893, 0.434935, 1.119384, -0.893915, -0.124147, -0.287019, 0.229937, 0.127912},
    		{-0.127120, 0.094790, -0.058406, -0.056701, -0.317795, 0.683450, 0.585741, 0.165034, -0.514814, -0.211381, 0.369281, -0.045567, 0.025498, 0.408032, 0.247166, -0.138228},
    		{-0.439498, -0.035935, -0.161482, -0.004161, -0.326345, 0.765755, 0.389565, 0.107404, -0.298224, 0.217631, 0.478028, 0.361618, 0.175778, 0.440725, -0.341223, -0.272882},
    		{-0.186656, -0.520038, 0.292029, -0.638556, -0.823912, -0.040460, 0.379841, -0.045103, -0.232839, -0.174024, -0.178698, 0.891113, -0.397810, 0.601253, -0.581324, -0.083713},
    		{0.112322, -1.119615, -0.134547, -0.189189, 1.286363, -1.438987, -0.610902, -1.536546, -0.287720, 1.747274, 0.425431, -0.288367, 1.141833, -0.659895, -0.982797, 2.273615},
    		{1.119983, -0.639127, 1.074130, 1.073632, 0.940989, 0.176950, -1.420784, -0.410451, -0.683578, 0.892233, 0.592752, -1.054814, 1.232023, -0.214384, 1.584364, 2.814713},
    		{-1.360348, 0.185010, 0.428280, 0.214887, -0.378310, 0.341005, -0.472638, -0.008157, -0.823608, -1.649269, -0.445340, 0.039611, -0.204446, 0.246833, 0.526474, 0.382102},
    		{-0.895324, 0.190315, -0.005937, 0.210960, -0.354838, 0.209557, 0.352662, 0.078110, 0.043986, -0.591044, -0.555478, 0.342435, -0.071636, 0.322994, -0.484618, 0.583646},
    		{-0.331533, 0.219849, 0.306924, -0.061376, 0.003104, -0.322914, 0.819617, 0.066041, 0.229445, -0.514478, -0.469671, 0.346854, -0.001419, 0.225656, -0.200305, 0.652084},
    		{0.143234, -0.245469, 0.815704, -0.117100, 0.797782, -0.267416, 0.864186, -0.122170, 0.036390, 0.139233, 0.388281, 0.524527, -0.288451, 0.061965, 0.210438, 0.439354},
    		{0.298940, -0.059274, 0.504266, -0.254365, 0.201066, 0.542950, 0.498867, -0.369598, 0.537307, 0.539083, 0.926595, -0.112331, -0.114187, 0.028961, 0.119449, 0.148821},
    		{0.138206, 0.332341, 0.246507, -0.198659, 0.148328, 0.520393, 0.634658, -0.284865, -0.310513, -0.837516, 0.421201, 0.194966, 0.128680, 0.181115, 0.081019, 0.158433},
    		{0.253375, 0.478900, 0.334443, -0.221549, 0.382287, 0.072456, 0.124406, 0.208218, -0.181502, -0.719076, 0.052921, -0.085323, -0.008094, 0.436304, 0.402478, 0.280864},
    		{-0.160699, 0.605632, 0.558122, -0.553418, 0.568739, -0.062592, 0.189821, 0.014506, 0.397814, -1.133097, -0.494292, 0.243655, 0.320041, 0.108582, 0.681864, 0.089203},
    		{0.074610, 0.087596, 0.385372, 0.413003, 0.308882, 0.307777, -0.506764, -1.113597, 0.372344, 1.153045, -0.119624, 1.203177, 0.447616, -0.031680, 0.887583, 1.487404},
    		{-0.303599, 1.773719, 0.136936, 0.195122, 2.554503, -1.668047, 0.753343, 0.521461, -1.833128, 1.334410, 1.045340, -3.086908, 0.931009, -2.513666, 0.668816, 0.625327},
    		{0.095186, 0.082264, 0.393692, 0.492300, 1.284268, -0.203346, -0.574637, -0.216739, -0.638945, -0.687499, 0.283180, -0.514516, 0.092485, -0.000948, 0.486869, 0.264073},
    		{0.981341, 0.067639, 0.044456, -0.445577, 0.423645, -0.185947, 0.172523, -0.396358, -0.188779, -0.703549, 0.261439, 0.255894, -0.096685, 0.393926, -0.253967, 0.343429},
    		{0.331225, 0.016763, 0.058859, -0.493892, -0.505360, -0.414145, 0.389902, -0.056377, 0.006672, -0.099707, 0.208345, 1.061466, -0.035990, 0.863265, -0.871912, 0.006805},
    		{0.392360, -1.053504, 0.298676, -0.211367, 0.052416, 0.284426, 0.607171, -0.417439, 0.497411, 0.683202, -0.011191, 0.382796, -0.033796, 0.262028, -0.985412, -0.236017},
    		{0.004919, 0.673432, 0.435651, -0.004882, 0.160272, 0.749885, 0.547658, -0.495606, 0.205464, -0.033006, 0.058558, -0.159397, 0.357054, -0.012799, -0.095460, 0.275698},
    		{-0.283260, 0.487420, 0.776738, 0.064186, 0.623622, 0.307977, 0.619468, 0.080858, -0.552245, -0.601744, 0.228108, 0.222788, 0.309913, 0.564926, 0.282070, 0.279773},
    		{-0.270797, 0.236087, 0.338352, -0.146978, 0.379392, 0.131987, -0.011755, 0.197904, 0.280472, -0.255005, -0.099481, -0.006102, 0.040187, 0.157987, 0.331535, 0.389654},
    		{-0.192504, -0.430773, 0.577312, 0.165071, 0.850232, -0.035987, 0.099905, -0.198549, 0.192089, 0.191342, 0.228429, 0.389825, 0.332980, -0.000593, 0.158674, 0.427859},
    		{0.584438, 0.743857, 0.750310, 0.873375, -1.208031, 0.678784, -0.507652, -0.222499, 1.056887, 0.456432, -0.997490, 0.817957, 0.486991, 0.970194, -0.059466, 1.153435},
    		{0.301329, 1.572095, -0.445770, 0.249534, 2.265390, -1.605315, 0.813388, 0.626347, -1.702021, 1.088286, 0.176896, -2.557975, 0.382674, -2.481662, 0.673813, 0.412107},
    		{0.202374, 0.202223, 0.099318, 0.474326, 0.546526, 0.166611, -0.548693, 0.020177, -0.887245, -0.107777, 0.388056, 0.404938, -0.222238, 0.033146, 0.349300, 0.141270},
    		{-0.096092, -0.153508, 0.224516, 0.417768, 0.149006, -0.220950, -0.658726, 0.008795, -0.571059, 0.583131, 0.187045, 0.575744, -0.098200, -0.185988, 0.034163, 0.104204},
    		{0.170254, -0.304804, 0.612934, 0.338215, -0.080855, -0.323738, 0.140194, -0.448778, -0.230662, 0.340577, -0.122454, 0.335781, 0.046446, 0.081125, 0.140523, -0.089981},
    		{0.167279, -0.158601, 0.297715, 0.333396, 0.201946, -0.413856, 0.113852, -0.263777, 0.500782, 0.272563, -0.246545, 0.175014, 0.141012, 0.493977, -0.144847, -0.708265},
    		{-0.180112, 0.508349, 0.707937, 0.266283, 0.589946, -0.073594, -0.006782, 0.154546, 0.017977, 0.348975, 0.386148, 0.042327, -0.272607, 0.494852, 0.161169, -0.349370},
    		{0.206094, -0.034006, 0.625885, 0.325312, 0.457643, 0.024256, -0.051405, -0.206910, 0.031668, 0.507707, -0.031434, -0.190210, -0.341188, 0.150013, 0.119810, -0.073734},
    		{0.375100, -0.154945, 0.393803, 0.382376, 0.186086, -0.307091, -0.287636, -0.061691, -0.169335, 0.703565, -0.144319, 0.010026, -0.641039, 0.100164, 0.001476, 0.163507},
    		{0.342653, 0.361521, 0.053514, 0.551224, 0.245737, -0.516278, 0.280383, 0.090074, -0.137078, 0.761331, 0.047613, -0.318970, -0.362186, 0.304205, -0.785760, 0.363100},
    		{0.749890, 0.467949, 0.634160, 0.100194, -0.726250, 0.074070, -0.496276, -0.294473, 0.399100, 0.625944, 0.111307, 0.051857, -0.306194, 0.994931, -0.380397, 0.465837},
    		{0.357210, 1.999381, -0.087297, 0.102047, 2.009077, -1.711422, 1.144497, 1.222533, -1.156460, 1.345550, 0.873129, -3.600003, 0.179092, -2.970676, 0.536015, -0.026572},
    		{0.157773, -0.110912, 0.538295, 0.307386, 0.057956, -0.203872, -0.509358, 0.616578, -1.034765, 0.364088, 0.715420, -0.798614, 0.282817, -0.749097, 0.328338, 0.176937},
    		{-0.176499, -0.688959, -0.453722, 0.227790, -0.398582, 0.419462, -0.424353, 0.643688, -0.342854, 0.038073, -0.191284, -0.080025, -0.076407, -0.339970, -0.415994, 0.164358},
    		{-0.503357, -0.258868, -0.095627, 0.353045, -0.052195, 0.183825, 0.297618, 0.363877, -0.110582, 0.170050, -0.139497, 0.180111, 0.034386, -0.441366, -0.197520, 0.150523},
    		{-0.271105, -0.046962, -0.509070, 0.628296, 0.328607, -0.185775, 0.446002, 0.198753, 0.034452, 0.177345, 0.035844, 0.386905, 0.016529, 0.036545, -0.178975, -0.239617},
    		{-0.316293, 0.555981, -0.725258, 0.549631, 0.281020, -0.474102, 0.149790, -0.142454, 0.170914, 0.468264, 0.150413, 0.306103, 0.068287, 0.266572, 0.186471, -0.021000},
    		{-0.571900, 0.298040, -0.854932, 0.595143, 0.332345, -0.086423, -0.036641, 0.075807, 0.430008, 0.524674, -0.014517, -0.034050, -0.120808, 0.248527, 0.170183, 0.248423},
    		{-0.193536, 0.169347, -0.424597, 0.626027, -0.256994, 0.153716, 0.442029, -0.066603, 0.099710, 0.456014, -0.310275, -0.023677, -0.612354, 0.378804, -0.791100, 0.235305},
    		{-0.143465, 0.095092, -1.053170, 0.849566, 0.069298, -0.024831, 0.361971, 0.626251, -0.386747, 0.579565, -0.048054, -0.078353, -0.866791, 0.521408, -1.535125, -0.095311},
    		{0.535572, 0.124179, 0.390155, 0.961865, -0.165999, -0.259774, -0.601937, -0.586228, 0.293446, 0.618960, -0.434915, 0.516758, -0.108911, 1.018409, -0.858893, 0.513705},
    		{-0.077885, -1.063091, -0.288750, -0.024468, 0.642807, 0.179792, 0.537607, 0.812935, 0.437015, -0.687424, 1.529303, -2.080486, -1.432420, -1.982901, 1.290979, -0.234620},
    		{0.031472, -0.242380, -0.068965, -0.458870, -0.427821, 0.459429, 0.940646, 0.621944, -0.218205, -1.433037, 0.401630, -1.135502, -0.987130, -0.937085, 1.128368, -0.657883},
    		{0.215872, 0.068517, 0.334516, 0.101345, -0.411077, -0.182152, 0.101036, 1.473857, -0.439481, -0.310165, 1.678857, -1.685230, -0.917299, -0.415721, 1.097243, -0.290825},
    		{0.624650, -0.071358, 0.531982, 0.327071, -0.036478, -0.263775, 0.675421, 0.948544, 0.365235, 0.761026, 1.904388, -2.103234, -0.799754, -0.687253, 0.846367, -0.330577},
    		{0.522230, 0.278649, 0.658787, 0.355733, -0.120861, -0.109695, 0.841315, 1.062923, 0.195595, 0.760393, 1.676722, -1.465388, -0.571039, -0.429775, 0.809582, -0.225236},
    		{0.569997, 0.531166, -0.258333, 0.550294, -0.027435, -0.111112, 1.111917, 0.869758, -0.329085, 0.482157, 1.978963, -0.693130, -0.395772, 0.058089, 0.216785, -0.395913},
    		{-0.476115, 0.880255, -0.596906, 0.457486, -0.188696, -0.279354, 0.736421, 1.058603, -0.422580, 0.727177, 1.645338, -0.508530, -0.417924, -0.202022, 0.283434, -0.502451},
    		{-1.286042, 0.533510, -0.457413, -0.083258, -0.463283, -0.175729, 0.548236, 1.292366, -0.438625, 0.207300, 1.331672, -0.922807, -0.475742, -0.507269, 0.319166, -1.253198},
    		{-1.978347, 1.019942, -2.409193, 0.476060, 0.556438, -0.484688, 0.861781, 0.799860, 0.139624, 0.776237, 0.154669, -0.747875, -0.241870, -1.125493, 1.046491, -1.213983},
    		{-0.065774, -0.231417, -0.278087, 0.231450, -0.378213, 0.037124, -0.187914, 0.219502, 1.099761, -0.015882, -0.540772, 0.898595, -0.351726, 1.192555, 0.421142, -0.043276}};
const fixed_t w2[N_L1][N_L2] = {{0.866762, 0.316415, 0.476074, -0.333254, -1.338041, 2.249477, 0.025842, -1.174038},
    		{-0.390361, 0.511420, -0.521145, -0.037434, -1.914995, 0.699188, 0.975677, 0.497286},
    		{-0.637488, 0.735863, 1.436975, 0.462037, -0.116094, 0.756153, 0.700676, -1.528439},
    		{0.575239, -0.351084, 0.501911, -0.439845, 0.899226, 1.332494, 0.164620, -1.125046},
    		{0.342921, -0.715311, 0.803804, 1.051759, 0.203006, 0.261660, 0.529196, 0.279848},
    		{0.430305, 1.299455, 0.293856, -0.873604, -0.507443, -0.788687, -0.843886, 0.068682},
    		{0.828088, 0.586226, -0.109036, 0.346135, -0.115744, -0.294295, 0.984282, 0.862893},
    		{0.711179, -0.334392, -1.181141, -0.274142, 0.885301, 0.814584, 0.905290, -1.086398},
    		{-0.493441, 2.035579, 0.321263, -0.880410, -1.251511, -0.691442, -0.248406, 0.323546},
    		{-1.101378, 0.869089, 0.230303, 0.448158, 0.222954, 1.235760, -0.388364, 0.481183},
    		{0.651449, 0.865920, -0.229909, 0.746223, 0.806204, 0.264104, -0.471346, 0.146625},
    		{-0.778306, -0.213558, 0.778148, -0.573413, 0.593020, -0.579728, 0.484689, 0.690591},
    		{0.758950, -0.966121, 0.219417, -0.877563, -0.540135, 2.078058, 1.018339, -1.257111},
    		{0.016570, 0.525858, 0.708971, -0.566676, 1.090988, -0.200901, 0.908671, -0.542816},
    		{1.507834, 0.030597, -0.410619, 0.335750, -0.429269, -0.782110, -1.395679, -0.368810},
    		{0.807217, 0.924946, 1.679545, -0.624730, -0.351616, 0.675290, -1.616904, 0.375463}};
const fixed_t w3[N_L2][N_L3] = {{-0.136914, -1.389731, -0.390366, 0.637933, 0.475197, -0.085176, -1.439178, 0.761492, -0.467240, 0.380937},
    		{-1.450475, 0.506289, 0.057839, -0.341771, 0.017344, -1.044001, 0.183165, 0.505855, -0.163953, 0.588975},
    		{0.365921, 0.547038, 0.945073, 0.193405, 0.466354, -0.278493, 0.246605, -0.661041, 0.013586, -1.427611},
    		{-1.277195, 0.247722, -1.447683, 0.684382, -0.091529, 0.844170, 0.111053, -1.370448, 0.564091, 0.196262},
    		{1.105640, -0.418063, 0.113152, 0.629025, -1.770459, -0.402436, -0.115329, -1.185860, 0.988151, 0.227102},
    		{-0.491168, 0.698843, 0.751997, 0.089746, -1.910946, 0.980206, -1.065886, 0.458511, -0.188102, -1.522732},
    		{0.755359, -1.538801, -0.375499, -0.822816, -0.112026, 0.698298, 0.893050, 0.089789, -0.502069, 0.140213},
    		{-1.001085, 0.620696, -1.259460, -1.341030, 1.174696, -0.672563, -1.309348, -1.465834, 0.590530, -0.315516}};
}
